FANN_FLO_2.1
num_layers=3
learning_rate=0.700000
connection_rate=1.000000
network_type=0
learning_momentum=0.000000
training_algorithm=2
train_error_function=1
train_stop_function=0
cascade_output_change_fraction=0.010000
quickprop_decay=-0.000100
quickprop_mu=1.750000
rprop_increase_factor=1.200000
rprop_decrease_factor=0.500000
rprop_delta_min=0.000000
rprop_delta_max=50.000000
rprop_delta_zero=0.100000
cascade_output_stagnation_epochs=12
cascade_candidate_change_fraction=0.010000
cascade_candidate_stagnation_epochs=12
cascade_max_out_epochs=150
cascade_min_out_epochs=50
cascade_max_cand_epochs=150
cascade_min_cand_epochs=50
cascade_num_candidate_groups=2
bit_fail_limit=3.49999994039535522461e-01
cascade_candidate_limit=1.00000000000000000000e+03
cascade_weight_multiplier=4.00000005960464477539e-01
cascade_activation_functions_count=10
cascade_activation_functions=3 5 7 8 10 11 14 15 16 17 
cascade_activation_steepnesses_count=4
cascade_activation_steepnesses=2.50000000000000000000e-01 5.00000000000000000000e-01 7.50000000000000000000e-01 1.00000000000000000000e+00 
layer_sizes=3 4 6 
scale_included=0
neurons (num_inputs, activation_function, activation_steepness)=(0, 0, 0.00000000000000000000e+00) (0, 0, 0.00000000000000000000e+00) (0, 0, 0.00000000000000000000e+00) (3, 5, 5.00000000000000000000e-01) (3, 5, 5.00000000000000000000e-01) (3, 5, 5.00000000000000000000e-01) (0, 5, 0.00000000000000000000e+00) (4, 5, 5.00000000000000000000e-01) (4, 5, 5.00000000000000000000e-01) (4, 5, 5.00000000000000000000e-01) (4, 5, 5.00000000000000000000e-01) (4, 5, 5.00000000000000000000e-01) (0, 5, 0.00000000000000000000e+00) 
connections (connected_to_neuron, weight)=(0, 3.34359288215637207031e+00) (1, -3.31799769401550292969e+00) (2, 8.48243772983551025391e-01) (0, 4.53864479064941406250e+00) (1, 8.55576917529106140137e-02) (2, -8.08160722255706787109e-01) (0, -8.88827443122863769531e-02) (1, 2.64457824707031250000e+02) (2, -1.31075218319892883301e-01) (3, -5.10899685323238372803e-02) (4, 1.67324617505073547363e-02) (5, 3.65678977686911821365e-04) (6, 2.94014010578393936157e-02) (3, 2.31941733509302139282e-02) (4, 1.41987264156341552734e-01) (5, -2.44411779567599296570e-03) (6, -1.20915109291672706604e-02) (3, 1.49415600299835205078e+00) (4, 3.76891326904296875000e+01) (5, -3.53574037551879882812e+00) (6, 4.91963535547256469727e-01) (3, 3.70317190885543823242e-01) (4, -3.70837974548339843750e+01) (5, -2.98655605316162109375e+00) (6, 6.17807865142822265625e-01) (3, 4.62055146694183349609e-01) (4, -1.30427479743957519531e+00) (5, 1.25870361328125000000e+01) (6, 5.47450125217437744141e-01) 
